<?xml version="1.0"?>
<opencv_storage>
<stage13>
  <maxWeakCount>10</maxWeakCount>
  <stageThreshold>-8.5061508417129517e-01</stageThreshold>
  <weakClassifiers>
    <_>
      <internalNodes>
        0 -1 55370 1.1451674072304741e-04</internalNodes>
      <leafValues>
        5.2330225706100464e-01 -6.2416106462478638e-01</leafValues></_>
    <_>
      <internalNodes>
        0 -1 51807 6.9059114903211594e-03</internalNodes>
      <leafValues>
        -8.5612016916275024e-01 2.1896098554134369e-01</leafValues></_>
    <_>
      <internalNodes>
        0 -1 51439 3.5466965287923813e-02</internalNodes>
      <leafValues>
        2.3414517939090729e-01 -7.9604357481002808e-01</leafValues></_>
    <_>
      <internalNodes>
        0 -1 179 1.3750411570072174e-01</internalNodes>
      <leafValues>
        -2.6854673027992249e-01 7.8243660926818848e-01</leafValues></_>
    <_>
      <internalNodes>
        0 -1 53314 -2.1331547759473324e-03</internalNodes>
      <leafValues>
        4.9277809262275696e-01 -3.3433842658996582e-01</leafValues></_>
    <_>
      <internalNodes>
        0 -1 50338 1.6783572733402252e-02</internalNodes>
      <leafValues>
        -3.5855975747108459e-01 4.9022045731544495e-01</leafValues></_>
    <_>
      <internalNodes>
        0 -1 41752 -9.5966761000454426e-04</internalNodes>
      <leafValues>
        3.2311049103736877e-01 -5.0198805332183838e-01</leafValues></_>
    <_>
      <internalNodes>
        0 -1 59397 -1.2634830549359322e-02</internalNodes>
      <leafValues>
        4.1484460234642029e-01 -4.0745908021926880e-01</leafValues></_>
    <_>
      <internalNodes>
        0 -1 42237 2.1735895425081253e-02</internalNodes>
      <leafValues>
        2.1192058920860291e-01 -9.0633755922317505e-01</leafValues></_>
    <_>
      <internalNodes>
        0 -1 59682 3.2115373760461807e-03</internalNodes>
      <leafValues>
        1.5431270003318787e-01 -8.2366430759429932e-01</leafValues></_></weakClassifiers></stage13>
</opencv_storage>
