<?xml version="1.0"?>
<opencv_storage>
<stage5>
  <maxWeakCount>7</maxWeakCount>
  <stageThreshold>-7.9309225082397461e-01</stageThreshold>
  <weakClassifiers>
    <_>
      <internalNodes>
        0 -1 56068 -2.1531237289309502e-03</internalNodes>
      <leafValues>
        5.8649790287017822e-01 -6.1904764175415039e-01</leafValues></_>
    <_>
      <internalNodes>
        0 -1 46539 -7.6419918332248926e-04</internalNodes>
      <leafValues>
        3.8524353504180908e-01 -6.6220277547836304e-01</leafValues></_>
    <_>
      <internalNodes>
        0 -1 3990 4.9330562353134155e-02</internalNodes>
      <leafValues>
        -4.7690334916114807e-01 5.1498878002166748e-01</leafValues></_>
    <_>
      <internalNodes>
        0 -1 45458 1.2326356023550034e-02</internalNodes>
      <leafValues>
        -3.7635257840156555e-01 6.4113622903823853e-01</leafValues></_>
    <_>
      <internalNodes>
        0 -1 32977 7.9216221347451210e-03</internalNodes>
      <leafValues>
        -5.6847900152206421e-01 4.1147279739379883e-01</leafValues></_>
    <_>
      <internalNodes>
        0 -1 36215 -5.5302423425018787e-04</internalNodes>
      <leafValues>
        5.2746242284774780e-01 -4.5266616344451904e-01</leafValues></_>
    <_>
      <internalNodes>
        0 -1 64325 -2.0663344184868038e-04</internalNodes>
      <leafValues>
        3.9071533083915710e-01 -6.4369338750839233e-01</leafValues></_></weakClassifiers></stage5>
</opencv_storage>
