<?xml version="1.0"?>
<opencv_storage>
<cascade>
  <stageType>BOOST</stageType>
  <featureType>HAAR</featureType>
  <height>24</height>
  <width>24</width>
  <stageParams>
    <boostType>GAB</boostType>
    <minHitRate>9.9500000476837158e-01</minHitRate>
    <maxFalseAlarm>5.0000000000000000e-01</maxFalseAlarm>
    <weightTrimRate>9.4999999999999996e-01</weightTrimRate>
    <maxDepth>1</maxDepth>
    <maxWeakCount>100</maxWeakCount></stageParams>
  <featureParams>
    <maxCatCount>0</maxCatCount>
    <featSize>1</featSize>
    <mode>CORE</mode></featureParams>
  <stageNum>12</stageNum>
  <stages>
    <!-- stage 0 -->
    <_>
      <maxWeakCount>2</maxWeakCount>
      <stageThreshold>1.3463249802589417e-01</stageThreshold>
      <weakClassifiers>
        <_>
          <internalNodes>
            0 -1 17 2.8966836631298065e-02</internalNodes>
          <leafValues>
            -7.6923078298568726e-01 1.</leafValues></_>
        <_>
          <internalNodes>
            0 -1 18 2.8423699550330639e-03</internalNodes>
          <leafValues>
            -8.6536747217178345e-01 9.3165397644042969e-01</leafValues></_></weakClassifiers></_>
    <!-- stage 1 -->
    <_>
      <maxWeakCount>2</maxWeakCount>
      <stageThreshold>2.8436881303787231e-01</stageThreshold>
      <weakClassifiers>
        <_>
          <internalNodes>
            0 -1 11 -1.8358461558818817e-02</internalNodes>
          <leafValues>
            1. -6.4285713434219360e-01</leafValues></_>
        <_>
          <internalNodes>
            0 -1 21 -3.6812257021665573e-03</internalNodes>
          <leafValues>
            9.2722594738006592e-01 -6.7951524257659912e-01</leafValues></_></weakClassifiers></_>
    <!-- stage 2 -->
    <_>
      <maxWeakCount>2</maxWeakCount>
      <stageThreshold>1.6715726256370544e-01</stageThreshold>
      <weakClassifiers>
        <_>
          <internalNodes>
            0 -1 4 -1.0226769372820854e-02</internalNodes>
          <leafValues>
            1. -6.4285713434219360e-01</leafValues></_>
        <_>
          <internalNodes>
            0 -1 7 1.3475830666720867e-02</internalNodes>
          <leafValues>
            -8.1003522872924805e-01 8.1001442670822144e-01</leafValues></_></weakClassifiers></_>
    <!-- stage 3 -->
    <_>
      <maxWeakCount>2</maxWeakCount>
      <stageThreshold>3.5714286565780640e-01</stageThreshold>
      <weakClassifiers>
        <_>
          <internalNodes>
            0 -1 19 6.3177281990647316e-03</internalNodes>
          <leafValues>
            -6.4285713434219360e-01 1.</leafValues></_>
        <_>
          <internalNodes>
            0 -1 2 2.2668058052659035e-02</internalNodes>
          <leafValues>
            -5.3350073099136353e-01 1.</leafValues></_></weakClassifiers></_>
    <!-- stage 4 -->
    <_>
      <maxWeakCount>1</maxWeakCount>
      <stageThreshold>6.4285713434219360e-01</stageThreshold>
      <weakClassifiers>
        <_>
          <internalNodes>
            0 -1 20 2.1602581255137920e-03</internalNodes>
          <leafValues>
            6.4285713434219360e-01 -1.</leafValues></_></weakClassifiers></_>
    <!-- stage 5 -->
    <_>
      <maxWeakCount>2</maxWeakCount>
      <stageThreshold>1.2221170961856842e-01</stageThreshold>
      <weakClassifiers>
        <_>
          <internalNodes>
            0 -1 10 2.6845844462513924e-02</internalNodes>
          <leafValues>
            -5.8620691299438477e-01 1.</leafValues></_>
        <_>
          <internalNodes>
            0 -1 6 -2.2352687083184719e-03</internalNodes>
          <leafValues>
            7.0841860771179199e-01 -8.6313462257385254e-01</leafValues></_></weakClassifiers></_>
    <!-- stage 6 -->
    <_>
      <maxWeakCount>2</maxWeakCount>
      <stageThreshold>-1.3109786808490753e-01</stageThreshold>
      <weakClassifiers>
        <_>
          <internalNodes>
            0 -1 13 1.4580702409148216e-03</internalNodes>
          <leafValues>
            -8.0952382087707520e-01 6.8000000715255737e-01</leafValues></_>
        <_>
          <internalNodes>
            0 -1 1 2.2048847749829292e-03</internalNodes>
          <leafValues>
            7.6869058609008789e-01 -8.1109786033630371e-01</leafValues></_></weakClassifiers></_>
    <!-- stage 7 -->
    <_>
      <maxWeakCount>2</maxWeakCount>
      <stageThreshold>2.3551459610462189e-01</stageThreshold>
      <weakClassifiers>
        <_>
          <internalNodes>
            0 -1 5 1.6167608555406332e-03</internalNodes>
          <leafValues>
            -5.7142859697341919e-01 8.8888889551162720e-01</leafValues></_>
        <_>
          <internalNodes>
            0 -1 16 -2.5417315773665905e-03</internalNodes>
          <leafValues>
            8.5762208700180054e-01 -6.5337431430816650e-01</leafValues></_></weakClassifiers></_>
    <!-- stage 8 -->
    <_>
      <maxWeakCount>2</maxWeakCount>
      <stageThreshold>-8.7771281599998474e-02</stageThreshold>
      <weakClassifiers>
        <_>
          <internalNodes>
            0 -1 15 -5.7914789067581296e-04</internalNodes>
          <leafValues>
            -7.3913043737411499e-01 7.3913043737411499e-01</leafValues></_>
        <_>
          <internalNodes>
            0 -1 8 -5.1193363033235073e-03</internalNodes>
          <leafValues>
            -1. 6.5135914087295532e-01</leafValues></_></weakClassifiers></_>
    <!-- stage 9 -->
    <_>
      <maxWeakCount>2</maxWeakCount>
      <stageThreshold>-8.8246971368789673e-02</stageThreshold>
      <weakClassifiers>
        <_>
          <internalNodes>
            0 -1 12 2.2345609031617641e-03</internalNodes>
          <leafValues>
            6.8000000715255737e-01 -8.0952382087707520e-01</leafValues></_>
        <_>
          <internalNodes>
            0 -1 22 5.5128373205661774e-03</internalNodes>
          <leafValues>
            -7.6824694871902466e-01 8.7280356884002686e-01</leafValues></_></weakClassifiers></_>
    <!-- stage 10 -->
    <_>
      <maxWeakCount>2</maxWeakCount>
      <stageThreshold>-1.5098246932029724e-01</stageThreshold>
      <weakClassifiers>
        <_>
          <internalNodes>
            0 -1 14 -8.8237505406141281e-03</internalNodes>
          <leafValues>
            -8.0952382087707520e-01 6.8000000715255737e-01</leafValues></_>
        <_>
          <internalNodes>
            0 -1 3 -4.8407185822725296e-03</internalNodes>
          <leafValues>
            -1. 6.5854132175445557e-01</leafValues></_></weakClassifiers></_>
    <!-- stage 11 -->
    <_>
      <maxWeakCount>2</maxWeakCount>
      <stageThreshold>-1.3109786808490753e-01</stageThreshold>
      <weakClassifiers>
        <_>
          <internalNodes>
            0 -1 0 1.0338310152292252e-02</internalNodes>
          <leafValues>
            -8.0952382087707520e-01 6.8000000715255737e-01</leafValues></_>
        <_>
          <internalNodes>
            0 -1 9 -3.4000310115516186e-03</internalNodes>
          <leafValues>
            7.6869058609008789e-01 -8.1109786033630371e-01</leafValues></_></weakClassifiers></_></stages>
  <features>
    <_>
      <rects>
        <_>
          0 0 17 12 -1.</_>
        <_>
          0 4 17 4 3.</_></rects>
      <tilted>0</tilted></_>
    <_>
      <rects>
        <_>
          0 8 3 14 -1.</_>
        <_>
          1 8 1 14 3.</_></rects>
      <tilted>0</tilted></_>
    <_>
      <rects>
        <_>
          0 15 12 8 -1.</_>
        <_>
          0 15 6 4 2.</_>
        <_>
          6 19 6 4 2.</_></rects>
      <tilted>0</tilted></_>
    <_>
      <rects>
        <_>
          2 2 5 14 -1.</_>
        <_>
          2 9 5 7 2.</_></rects>
      <tilted>0</tilted></_>
    <_>
      <rects>
        <_>
          3 0 6 16 -1.</_>
        <_>
          3 0 3 8 2.</_>
        <_>
          6 8 3 8 2.</_></rects>
      <tilted>0</tilted></_>
    <_>
      <rects>
        <_>
          3 5 3 3 -1.</_>
        <_>
          4 5 1 3 3.</_></rects>
      <tilted>0</tilted></_>
    <_>
      <rects>
        <_>
          4 6 3 6 -1.</_>
        <_>
          4 8 3 2 3.</_></rects>
      <tilted>0</tilted></_>
    <_>
      <rects>
        <_>
          5 9 11 6 -1.</_>
        <_>
          5 11 11 2 3.</_></rects>
      <tilted>0</tilted></_>
    <_>
      <rects>
        <_>
          5 16 15 8 -1.</_>
        <_>
          5 18 15 4 2.</_></rects>
      <tilted>0</tilted></_>
    <_>
      <rects>
        <_>
          6 4 2 6 -1.</_>
        <_>
          6 7 2 3 2.</_></rects>
      <tilted>0</tilted></_>
    <_>
      <rects>
        <_>
          6 4 12 7 -1.</_>
        <_>
          10 4 4 7 3.</_></rects>
      <tilted>0</tilted></_>
    <_>
      <rects>
        <_>
          6 14 13 6 -1.</_>
        <_>
          6 16 13 2 3.</_></rects>
      <tilted>0</tilted></_>
    <_>
      <rects>
        <_>
          7 19 4 2 -1.</_>
        <_>
          9 19 2 2 2.</_></rects>
      <tilted>0</tilted></_>
    <_>
      <rects>
        <_>
          11 3 3 6 -1.</_>
        <_>
          12 5 1 2 9.</_></rects>
      <tilted>0</tilted></_>
    <_>
      <rects>
        <_>
          12 13 8 9 -1.</_>
        <_>
          14 13 4 9 2.</_></rects>
      <tilted>0</tilted></_>
    <_>
      <rects>
        <_>
          13 14 6 3 -1.</_>
        <_>
          15 15 2 1 9.</_></rects>
      <tilted>0</tilted></_>
    <_>
      <rects>
        <_>
          14 10 6 13 -1.</_>
        <_>
          16 10 2 13 3.</_></rects>
      <tilted>0</tilted></_>
    <_>
      <rects>
        <_>
          15 7 5 12 -1.</_>
        <_>
          15 11 5 4 3.</_></rects>
      <tilted>0</tilted></_>
    <_>
      <rects>
        <_>
          15 8 3 4 -1.</_>
        <_>
          15 10 3 2 2.</_></rects>
      <tilted>0</tilted></_>
    <_>
      <rects>
        <_>
          16 1 2 8 -1.</_>
        <_>
          16 3 2 4 2.</_></rects>
      <tilted>0</tilted></_>
    <_>
      <rects>
        <_>
          16 18 7 2 -1.</_>
        <_>
          16 19 7 1 2.</_></rects>
      <tilted>0</tilted></_>
    <_>
      <rects>
        <_>
          17 1 4 8 -1.</_>
        <_>
          19 1 2 8 2.</_></rects>
      <tilted>0</tilted></_>
    <_>
      <rects>
        <_>
          17 5 6 6 -1.</_>
        <_>
          17 5 3 3 2.</_>
        <_>
          20 8 3 3 2.</_></rects>
      <tilted>0</tilted></_></features></cascade>
</opencv_storage>
